{
  "sizes": [
    20,
    10,
    1
  ],
  "layers": [
    {
      "0": {},
      "1": {},
      "2": {},
      "3": {},
      "4": {},
      "5": {},
      "6": {},
      "7": {},
      "8": {},
      "9": {},
      "10": {},
      "11": {},
      "12": {},
      "13": {},
      "14": {},
      "15": {},
      "16": {},
      "17": {},
      "18": {},
      "19": {}
    },
    {
      "0": {
        "bias": -7.438334941864014,
        "weights": {
          "0": -2.394382953643799,
          "1": 38.95185089111328,
          "2": 19.388696670532227,
          "3": 19.29189682006836,
          "4": -57.61412048339844,
          "5": 1.0454323291778564,
          "6": -1.8128122091293335,
          "7": -0.5346729755401611,
          "8": 6.770988464355469,
          "9": 4.504416465759277,
          "10": 0.2586568593978882,
          "11": -0.3647598624229431,
          "12": -0.1668349951505661,
          "13": -1.0790588855743408,
          "14": -1.5710369348526,
          "15": 0.05532108619809151,
          "16": 0.14015807211399078,
          "17": -0.0465453565120697,
          "18": 0.011504613794386387,
          "19": 0.01434299536049366
        }
      },
      "1": {
        "bias": -18.646724700927734,
        "weights": {
          "0": -0.2385880947113037,
          "1": 35.833255767822266,
          "2": 34.490760803222656,
          "3": 13.220458984375,
          "4": 31.8250789642334,
          "5": -11.4517822265625,
          "6": 25.70815658569336,
          "7": -10.479240417480469,
          "8": -6.341400146484375,
          "9": 3.473964214324951,
          "10": 0.1686602234840393,
          "11": -0.00021272523736115545,
          "12": 0.023689357563853264,
          "13": -0.6718794107437134,
          "14": -0.9387413859367371,
          "15": -0.17606763541698456,
          "16": 0.013038856908679008,
          "17": 0.016455890610814095,
          "18": -0.04393022507429123,
          "19": 0.1251698136329651
        }
      },
      "2": {
        "bias": -5.022458076477051,
        "weights": {
          "0": -0.7606789469718933,
          "1": 41.4616584777832,
          "2": 7.027514457702637,
          "3": 38.084842681884766,
          "4": -9.416484832763672,
          "5": -31.983118057250977,
          "6": 7.462581634521484,
          "7": -1.5521382093429565,
          "8": -4.294620037078857,
          "9": -2.9433557987213135,
          "10": -0.05061781033873558,
          "11": 0.12264980375766754,
          "12": 0.12843966484069824,
          "13": 0.4498516023159027,
          "14": 0.9552545547485352,
          "15": -0.13668663799762726,
          "16": -0.17739954590797424,
          "17": -0.08865116536617279,
          "18": 0.0030814544297754765,
          "19": -0.06762916594743729
        }
      },
      "3": {
        "bias": -15.818504333496094,
        "weights": {
          "0": -3.647531747817993,
          "1": -10.03539752960205,
          "2": 53.08578872680664,
          "3": 13.040485382080078,
          "4": 27.539142608642578,
          "5": 40.777809143066406,
          "6": -51.12876510620117,
          "7": 15.68006706237793,
          "8": 4.5843095779418945,
          "9": -2.498767614364624,
          "10": 0.012354200705885887,
          "11": 0.29835134744644165,
          "12": -0.05523969978094101,
          "13": 0.7136597037315369,
          "14": 1.0010265111923218,
          "15": -0.09888651967048645,
          "16": 0.08536749333143234,
          "17": 0.09063088148832321,
          "18": 0.09662297368049622,
          "19": 0.140289306640625
        }
      },
      "4": {
        "bias": -3.861665725708008,
        "weights": {
          "0": 31.406570434570312,
          "1": -39.42034149169922,
          "2": -0.9847897887229919,
          "3": 7.5134196281433105,
          "4": -36.612911224365234,
          "5": -2.557473659515381,
          "6": -3.3615450859069824,
          "7": -0.8758769631385803,
          "8": -0.9310628175735474,
          "9": -0.8958210349082947,
          "10": -0.08879095315933228,
          "11": -0.058242201805114746,
          "12": 0.20403285324573517,
          "13": 0.01366227027028799,
          "14": 0.10130175203084946,
          "15": -0.033582333475351334,
          "16": 0.05002903193235397,
          "17": -0.052397605031728745,
          "18": 0.13089986145496368,
          "19": 0.1275550127029419
        }
      },
      "5": {
        "bias": -14.898770332336426,
        "weights": {
          "0": 31.87807273864746,
          "1": 43.691627502441406,
          "2": 29.761289596557617,
          "3": -21.713890075683594,
          "4": -25.402956008911133,
          "5": 3.96610426902771,
          "6": 14.582029342651367,
          "7": 11.653878211975098,
          "8": 5.901782512664795,
          "9": -4.698780059814453,
          "10": 0.6473998427391052,
          "11": 0.14166434109210968,
          "12": 0.29444918036460876,
          "13": 1.353302001953125,
          "14": 2.3071930408477783,
          "15": 0.16167210042476654,
          "16": 0.08181696385145187,
          "17": -0.16478101909160614,
          "18": -0.1789059340953827,
          "19": -0.1128142774105072
        }
      },
      "6": {
        "bias": -8.335698127746582,
        "weights": {
          "0": -19.21422004699707,
          "1": -17.193456649780273,
          "2": 64.53590393066406,
          "3": -32.8873405456543,
          "4": -21.81321907043457,
          "5": 27.53519630432129,
          "6": 14.789976119995117,
          "7": 13.510702133178711,
          "8": 20.71413803100586,
          "9": 21.91925048828125,
          "10": 0.4136219322681427,
          "11": -0.2345316857099533,
          "12": -0.05480542778968811,
          "13": -1.7915769815444946,
          "14": -2.8215267658233643,
          "15": -0.18841591477394104,
          "16": 0.0034031779505312443,
          "17": 0.054145630449056625,
          "18": 0.1340826451778412,
          "19": 0.10209330171346664
        }
      },
      "7": {
        "bias": 0.8580962419509888,
        "weights": {
          "0": 0.17891144752502441,
          "1": -2.648402452468872,
          "2": 3.0867574214935303,
          "3": 1.325669765472412,
          "4": -4.859569549560547,
          "5": -2.879009962081909,
          "6": 0.8204519748687744,
          "7": -0.9822438359260559,
          "8": 1.2550231218338013,
          "9": 1.6952894926071167,
          "10": -0.20426850020885468,
          "11": -0.02555108070373535,
          "12": 0.12619872391223907,
          "13": -0.37168270349502563,
          "14": -0.6575037240982056,
          "15": 0.07979658246040344,
          "16": 0.1836005449295044,
          "17": -0.17816002666950226,
          "18": -0.06509877741336823,
          "19": 0.01285046711564064
        }
      },
      "8": {
        "bias": -4.799490928649902,
        "weights": {
          "0": 2.147859573364258,
          "1": 21.7762451171875,
          "2": -0.5216307044029236,
          "3": 3.650801420211792,
          "4": -11.959510803222656,
          "5": -29.253589630126953,
          "6": 37.20859909057617,
          "7": 15.672703742980957,
          "8": -6.800289630889893,
          "9": -11.38061237335205,
          "10": 0.8601500391960144,
          "11": 0.43514567613601685,
          "12": 0.02602391131222248,
          "13": 1.614091396331787,
          "14": 2.558821678161621,
          "15": 0.017155257984995842,
          "16": 0.06579113006591797,
          "17": 0.0973663181066513,
          "18": -0.11145728826522827,
          "19": 0.11082340776920319
        }
      },
      "9": {
        "bias": 2.4369165897369385,
        "weights": {
          "0": -36.178672790527344,
          "1": -34.675750732421875,
          "2": 37.24867248535156,
          "3": -21.082868576049805,
          "4": -4.452403545379639,
          "5": -12.946427345275879,
          "6": -3.275560140609741,
          "7": 1.9134997129440308,
          "8": -3.0375452041625977,
          "9": -1.459243893623352,
          "10": -0.0033074559178203344,
          "11": 0.2395884394645691,
          "12": -0.11458054929971695,
          "13": 0.28964856266975403,
          "14": 0.530536413192749,
          "15": -0.16913004219532013,
          "16": 0.1222311407327652,
          "17": -0.0874316394329071,
          "18": -0.11246205866336823,
          "19": 0.011130045168101788
        }
      }
    },
    {
      "0": {
        "bias": 29.459680557250977,
        "weights": {
          "0": 53.72097396850586,
          "1": 50.230384826660156,
          "2": -43.58076095581055,
          "3": -55.143131256103516,
          "4": -26.86248207092285,
          "5": -44.6046142578125,
          "6": 58.970245361328125,
          "7": 7.75771427154541,
          "8": -52.537601470947266,
          "9": -38.65134811401367
        }
      }
    }
  ],
  "outputLookup": false,
  "inputLookup": false,
  "activation": "sigmoid",
  "trainOpts": {
    "iterations": 100000,
    "errorThresh": 0.0005,
    "log": true,
    "logPeriod": 1,
    "learningRate": 0.3,
    "momentum": 0.1,
    "callbackPeriod": 10,
    "beta1": 0.9,
    "beta2": 0.999,
    "epsilon": 1e-8
  }
}